tree
version=v4
num_class=1
num_tree_per_iteration=1
label_index=0
max_feature_idx=7
objective=regression
feature_names=consolidated_factor_name consolidated_event_type consolidated_event_tags event_tag_category factor_movement factor_magnitude article_source_credibility market_perception_intensity
feature_infos=[0:4] [0:4] [0:6] [0:1] [0:2] [0.0010049944474049999:0.049995458100519197] [0.1000657594407242:0.99972797269279079] [0.1000708010823147:0.99999329610042975]
tree_sizes=2804 2778 2810 2812

Tree=0
num_leaves=31
num_cat=0
split_feature=1 7 6 7 6 2 6 6 7 6 5 5 7 7 6 6 6 6 4 6 6 5 6 7 5 6 0 7 5 7
split_gain=39.6408 109.437 90.3814 60.3912 67.6483 95.3728 50.2269 72.7619 80.783 60.5514 48.5659 49.1881 53.4893 57.4266 46.4812 45.4769 58.5609 44.6732 51.8595 50.7026 47.3099 43.8162 42.3797 40.7312 59.3622 55.4927 44.6301 39.1073 58.2278 37.5007
threshold=1.5000000000000002 0.74122532685977438 0.42850653602098659 0.66479553436967365 0.37614292222786511 2.5000000000000004 0.58771748282648051 0.30711787056089673 0.9632869440188595 0.16270083924291176 0.010526069311217552 0.0077993378391725508 0.50407174367386143 0.39388578805758595 0.21851492604504277 0.46545086805777697 0.48799171144896286 0.55229226823074096 1.5000000000000002 0.17416120243639943 0.56013417939282706 0.04490897826309851 0.9778382972086318 0.16944844867636785 0.020778741214162955 0.70628302416789823 2.5000000000000004 0.75730696121003649 0.041317851321608805 0.44308107777472805
decision_type=2 2 2 2 2 2 2 2 2 2 2 2 2 2 2 2 2 2 2 2 2 2 2 2 2 2 2 2 2 2
left_child=1 2 3 4 10 -6 7 8 9 -3 11 12 13 -1 -11 -4 -17 18 -2 -20 -19 22 -8 24 -18 -26 -27 -9 -29 -21
right_child=17 6 15 -5 5 -7 21 27 -10 14 -12 -13 -14 -15 -16 16 23 20 19 29 -22 -23 -24 -25 25 26 -28 28 -30 -31
leaf_value=-0.020553131776995793 -0.064401281775910021 0.082675110319206518 -0.12935588181743177 -0.094365088353310603 0.1718487371870924 -0.021880352891262025 -0.024350167111023391 0.18411738700908051 -0.20822170786751748 -0.11400549356556067 -0.0043268454695939429 -0.18325064938804869 0.080959232254052521 -0.21407865499016437 0.0075773789992747073 0.052692569254616815 0.072730542096560824 0.082641317626673705 0.025386219708884793 -0.075711403832972354 -0.036203574261826264 -0.12635854375177938 0.101100249986012 -0.064332206302480294 0.04164033833121026 -0.046850920255645655 -0.24394158309074257 0.021048693720230612 0.14492212139678035 -0.02516564712810828
leaf_weight=46 1578 59 84 87 48 54 377 22 21 51 489 31 27 23 82 50 56 34 126 235 2259 39 29 1061 31 27 20 197 47 391
leaf_count=46 1578 59 84 87 48 54 377 22 21 51 489 31 27 23 82 50 56 34 126 235 2259 39 29 1061 31 27 20 197 47 391
internal_value=-0.0385078 -0.0296748 -0.0421229 -0.0156801 -0.00614589 0.0692863 -0.000925686 0.0215465 -0.0220083 -0.00164116 -0.0186363 -0.0737333 -0.0383683 -0.0850616 -0.0390446 -0.0581398 -0.0533348 -0.0443505 -0.0541024 -0.0324911 -0.0344414 -0.0251148 -0.0153894 -0.0577711 -0.00582124 -0.0622174 -0.130719 0.056423 0.0449096 -0.0441405
internal_weight=7681 3058 2134 805 718 102 924 479 213 192 616 127 96 69 133 1329 1245 4623 2330 752 2293 445 406 1195 134 78 47 266 244 626
internal_count=7681 3058 2134 805 718 102 924 479 213 192 616 127 96 69 133 1329 1245 4623 2330 752 2293 445 406 1195 134 78 47 266 244 626
is_linear=0
shrinkage=1


Tree=1
num_leaves=31
num_cat=0
split_feature=1 7 6 7 6 2 6 6 7 6 5 7 7 5 6 6 6 6 4 6 6 7 5 5 7 7 5 5 6 6
split_gain=32.109 88.6441 73.209 48.9169 54.7951 77.252 40.7728 60.417 65.4342 49.0467 39.5677 38.9898 52.7161 47.1912 37.6498 36.8363 47.8907 36.1853 42.0062 41.0691 38.321 35.9115 35.6466 35.4 35.1685 36.0536 34.5512 53.8897 49.1459 34.1881
threshold=1.5000000000000002 0.74122532685977438 0.42850653602098659 0.66479553436967365 0.37614292222786511 2.5000000000000004 0.58313619801003125 0.30711787056089673 0.9632869440188595 0.16270083924291176 0.012112529237266951 0.50407174367386143 0.34681734979062789 0.0069877031183006007 0.21851492604504277 0.46545086805777697 0.52089262617053222 0.55229226823074096 1.5000000000000002 0.17416120243639943 0.56013417939282706 0.63415480771630761 0.04490897826309851 0.030226329547793404 0.59816703565959861 0.62332099465110247 0.033500197163967904 0.026663159784501754 0.11981217547197896 0.9778382972086318
decision_type=2 2 2 2 2 2 2 2 2 2 2 2 2 2 2 2 2 2 2 2 2 2 2 2 2 2 2 2 2 2
left_child=1 2 3 4 10 -6 7 8 9 -3 11 12 -1 -13 -11 -4 21 18 -2 26 -19 -17 29 -5 -12 -26 27 28 -20 -8
right_child=17 6 15 23 5 -7 22 -9 -10 14 24 13 -14 -15 -16 16 -18 20 19 -21 -22 -23 -24 -25 25 -27 -28 -29 -30 -31
leaf_value=-0.0065171688877265245 -0.022904607715351917 0.10946414274305612 -0.08136374805832193 0.0050008520781993871 0.18972040264246365 0.01536422355307473 0.013434052046184128 0.087083722404204311 -0.15234299089227404 -0.067548396423751239 0.023681509842644857 0.15630841858007694 -0.15357168867791957 -0.050817443633621388 0.041876184222538304 0.064802693200662093 -0.019784666427855827 0.10943373222766883 0.20098100066184998 -0.0046699013702345259 0.0024733268368379892 -0.080381618365645419 -0.078666148888759127 -0.12402458062043061 0.21676435798406601 0.036630462042987345 0.14234121693032128 -0.11085587262429974 0.014963014788773597 0.12604676313569835
leaf_weight=68 1578 59 84 50 48 54 383 260 21 51 421 22 38 22 82 115 1110 34 20 626 2259 20 39 37 20 25 35 22 49 29
leaf_count=68 1578 59 84 50 48 54 383 260 21 51 421 22 38 22 82 115 1110 34 20 626 2259 20 39 37 20 25 35 22 49 29
internal_value=0.000399548 0.0083492 -0.00285408 0.0209444 0.0295252 0.0974142 0.0342234 0.0547354 0.0152491 0.0335795 0.0182839 -0.0263873 -0.0592348 0.0527455 -8.36174e-05 -0.0172693 -0.0129448 -0.00485895 -0.0136356 0.00581458 0.00405931 0.0432939 0.0127109 -0.049872 0.032663 0.11669 0.0579041 0.0254283 0.0688813 0.0213607
internal_weight=7681 3058 2134 805 718 102 924 473 213 192 616 150 106 44 133 1329 1245 4623 2330 752 2293 135 451 87 466 45 126 91 69 412
internal_count=7681 3058 2134 805 718 102 924 473 213 192 616 150 106 44 133 1329 1245 4623 2330 752 2293 135 451 87 466 45 126 91 69 412
is_linear=0
shrinkage=0.1


Tree=2
num_leaves=31
num_cat=0
split_feature=1 5 7 7 3 6 7 7 5 7 5 6 6 2 6 7 7 1 5 6 6 6 7 6 7 7 5 0 5 5
split_gain=28.6217 84.6686 54.5273 44.0026 39.5788 36.2481 49.951 38.7555 55.9559 66.8093 34.2461 58.9104 46.4169 46.1779 78.9559 34.1935 57.236 47.5844 47.5512 42.7406 71.399 45.0811 39.4205 39.3383 39.071 36.9286 35.9585 93.73 91.1016 67.152
threshold=3.5000000000000004 0.045461335541498109 0.9632869440188595 0.12838379804765523 1.0000000180025095e-35 0.31192002831936999 0.20719243393454728 0.25166937362894287 0.017608442072812903 0.55937442610285315 0.038527228941203161 0.58313619801003125 0.76775520516856821 3.5000000000000004 0.90518774804469482 0.74122532685977438 0.73049167068922094 1.5000000000000002 0.03308620813938961 0.40056436575032789 0.34672254911869022 0.49912978662974955 0.76340571483371222 0.37904793611367987 0.93144414167914569 0.95953943184195356 0.012112529237266951 3.5000000000000004 0.0059740555984977512 0.013142041912982053
decision_type=2 2 2 2 2 2 2 2 2 2 2 2 2 2 2 2 2 2 2 2 2 2 2 2 2 2 2 2 2 2
left_child=15 2 3 -2 -5 7 -7 -6 -9 -10 12 -12 -8 -14 -15 16 26 -17 -18 20 22 25 -19 -22 -24 -21 27 -1 -29 -28
right_child=1 -3 -4 4 5 6 10 8 9 -11 11 -13 13 14 -16 17 18 19 -20 21 23 -23 24 -25 -26 -27 29 28 -30 -31
leaf_value=-0.0327645978407183 -0.085377856328199483 -0.090154961313970772 -0.10839348917408867 0.027399415448843237 -0.15281741445263228 0.086721845788340413 0.0044460557689589841 0.0524503344161944 0.036380472220480443 -0.13343259318516806 -0.043349851082478255 0.11332175985776954 -0.10071510895085739 -0.089727607087509056 0.13284369575890848 0.030801087911986619 -0.036250246081537769 0.095147605745061758 -0.21214215755462648 0.043950960762449545 -0.22646534981635902 0.0016967167390023402 -0.051758174927987212 -0.0489236564685901 0.040773685582098554 0.19295127987861635 0.085299660672553554 0.11792868094129877 -0.016775600161469943 0.0024852042308428825
leaf_weight=771 59 127 49 435 30 62 310 55 36 65 42 56 107 37 28 924 51 31 22 80 26 501 159 24 64 21 101 91 112 3205
leaf_count=771 59 127 49 435 30 62 310 55 36 65 42 56 107 37 28 924 51 31 22 80 26 501 159 24 64 21 101 91 112 3205
internal_value=0.000359594 -0.0120422 -0.00480632 -0.000966854 0.00297634 -0.00985463 0.00140739 -0.0487268 -0.0287093 -0.0729052 -0.00771244 0.0461768 -0.0186692 -0.0603303 0.00614926 0.00336425 -0.00145748 0.0148337 -0.0892588 -0.00145101 -0.0320155 0.0139836 -0.0105136 -0.141245 -0.0252019 0.0749312 4.00661e-05 -0.0168469 0.0436091 0.00501523
internal_weight=7681 1498 1371 1322 1263 828 642 186 156 101 580 98 482 172 65 6183 4353 1830 73 906 304 602 254 50 223 101 4280 974 203 3306
internal_count=7681 1498 1371 1322 1263 828 642 186 156 101 580 98 482 172 65 6183 4353 1830 73 906 304 602 254 50 223 101 4280 974 203 3306
is_linear=0
shrinkage=0.1


Tree=3
num_leaves=31
num_cat=0
split_feature=5 5 5 6 5 7 6 6 7 6 2 7 7 2 5 7 7 7 5 6 6 7 5 7 6 7 7 5 5 6
split_gain=26.5919 90.0525 65.4535 113.085 54.0295 48.4184 45.5314 79.3003 45.628 47.9617 45.3657 43.7312 42.1742 70.3646 39.1205 67.5256 42.457 41.7007 37.1466 36.8725 36.1947 35.4662 38.815 37.0265 34.9126 52.4965 38.1585 37.194 33.7846 47.4782
threshold=0.024367164960448901 0.012246767214914153 0.0093845807863725521 0.51456594610432937 0.012958447652045802 0.23247866290435507 0.37261063607492578 0.39008168981303609 0.14665773442296867 0.98757685226662517 5.5000000000000009 0.81800390416652535 0.59361736178340008 3.5000000000000004 0.033822798891210808 0.89224274208179111 0.87839977668914637 0.91333045732187801 0.0089438124869464525 0.85936569288970166 0.25145896913277582 0.86787034359239834 0.034593247465007103 0.35347173988544339 0.75872075744970136 0.86115682233415647 0.55937442610285315 0.011216533017599402 0.037687569320062113 0.55572258789778861
decision_type=2 2 2 2 2 2 2 2 2 2 2 2 2 2 2 2 2 2 2 2 2 2 2 2 2 2 2 2 2 2
left_child=1 2 6 5 11 -4 -1 -8 -9 18 24 12 13 -3 15 16 -2 -17 -10 20 -19 22 23 -16 25 26 -5 -26 29 -24
right_child=14 4 3 10 -6 -7 7 8 9 -11 -12 -13 -14 -15 21 17 -18 19 -20 -21 -22 -23 28 -25 27 -27 -28 -29 -30 -31
leaf_value=-0.025874363312808176 -0.013116747446601157 0.19307530352047511 -0.09695578978368731 -0.081894629461587307 0.017438479157166287 0.034982614021348411 0.17445530613263449 0.12094984306854062 0.0037723760483810288 -0.14858804002404213 0.015135103752836585 -0.026752983950651611 0.22241854175393072 -0.019608488593782697 0.15229337569968454 -0.17095336696427121 0.12698413794013588 -0.14411497371537346 0.11208470034779926 -0.17535447239875795 0.0030228345916129469 0.030082849924300992 -0.06337088055985228 0.020177276790896551 -0.094903479206871685 -0.20662739038467409 0.048903270016767475 -0.20934007922808329 0.00065743449912008015 0.0037617127865259281
leaf_weight=402 1288 28 33 54 1754 177 30 35 782 20 40 26 28 35 29 38 22 21 33 20 82 387 219 79 77 20 38 45 1636 203
leaf_count=402 1288 28 33 54 1754 177 30 35 782 20 40 26 28 35 29 38 22 21 33 20 82 387 219 79 77 20 38 45 1636 203
internal_value=0.000323634 0.00649573 -0.00956561 -0.0409641 0.0218274 0.0142494 0.00210633 0.0146044 0.00909227 0.00440363 -0.083281 0.0876235 0.120303 0.0749176 -0.00528555 -0.018275 -0.0107639 -0.0793904 0.00815803 -0.0511027 -0.0269761 0.0021988 -0.00278325 0.0556529 -0.100104 -0.0597905 -0.0278694 -0.137114 -0.00584987 -0.0310772
internal_weight=7681 3657 1786 484 1871 210 1302 900 870 835 274 117 91 63 4024 1471 1310 161 815 123 103 2553 2166 108 234 112 92 122 2058 422
internal_count=7681 3657 1786 484 1871 210 1302 900 870 835 274 117 91 63 4024 1471 1310 161 815 123 103 2553 2166 108 234 112 92 122 2058 422
is_linear=0
shrinkage=0.1


end of trees

feature_importances:
article_source_credibility=42
market_perception_intensity=37
factor_magnitude=27
consolidated_event_tags=5
consolidated_event_type=4
consolidated_factor_name=2
factor_movement=2
event_tag_category=1

parameters:
[boosting: gbdt]
[objective: regression]
[metric: rmse]
[tree_learner: serial]
[device_type: cpu]
[data_sample_strategy: bagging]
[data: ]
[valid: ]
[num_iterations: 100]
[learning_rate: 0.1]
[num_leaves: 31]
[num_threads: 0]
[seed: 0]
[deterministic: 0]
[force_col_wise: 0]
[force_row_wise: 0]
[histogram_pool_size: -1]
[max_depth: -1]
[min_data_in_leaf: 20]
[min_sum_hessian_in_leaf: 0.001]
[bagging_fraction: 0.8]
[pos_bagging_fraction: 1]
[neg_bagging_fraction: 1]
[bagging_freq: 5]
[bagging_seed: 3]
[bagging_by_query: 0]
[feature_fraction: 0.9]
[feature_fraction_bynode: 1]
[feature_fraction_seed: 2]
[extra_trees: 0]
[extra_seed: 6]
[early_stopping_round: 0]
[early_stopping_min_delta: 0]
[first_metric_only: 0]
[max_delta_step: 0]
[lambda_l1: 0]
[lambda_l2: 0]
[linear_lambda: 0]
[min_gain_to_split: 0]
[drop_rate: 0.1]
[max_drop: 50]
[skip_drop: 0.5]
[xgboost_dart_mode: 0]
[uniform_drop: 0]
[drop_seed: 4]
[top_rate: 0.2]
[other_rate: 0.1]
[min_data_per_group: 100]
[max_cat_threshold: 32]
[cat_l2: 10]
[cat_smooth: 10]
[max_cat_to_onehot: 4]
[top_k: 20]
[monotone_constraints: ]
[monotone_constraints_method: basic]
[monotone_penalty: 0]
[feature_contri: ]
[forcedsplits_filename: ]
[refit_decay_rate: 0.9]
[cegb_tradeoff: 1]
[cegb_penalty_split: 0]
[cegb_penalty_feature_lazy: ]
[cegb_penalty_feature_coupled: ]
[path_smooth: 0]
[interaction_constraints: ]
[verbosity: -1]
[saved_feature_importance_type: 0]
[use_quantized_grad: 0]
[num_grad_quant_bins: 4]
[quant_train_renew_leaf: 0]
[stochastic_rounding: 1]
[linear_tree: 0]
[max_bin: 255]
[max_bin_by_feature: ]
[min_data_in_bin: 3]
[bin_construct_sample_cnt: 200000]
[data_random_seed: 1]
[is_enable_sparse: 1]
[enable_bundle: 1]
[use_missing: 1]
[zero_as_missing: 0]
[feature_pre_filter: 1]
[pre_partition: 0]
[two_round: 0]
[header: 0]
[label_column: ]
[weight_column: ]
[group_column: ]
[ignore_column: ]
[categorical_feature: ]
[forcedbins_filename: ]
[precise_float_parser: 0]
[parser_config_file: ]
[objective_seed: 5]
[num_class: 1]
[is_unbalance: 0]
[scale_pos_weight: 1]
[sigmoid: 1]
[boost_from_average: 1]
[reg_sqrt: 0]
[alpha: 0.9]
[fair_c: 1]
[poisson_max_delta_step: 0.7]
[tweedie_variance_power: 1.5]
[lambdarank_truncation_level: 30]
[lambdarank_norm: 1]
[label_gain: ]
[lambdarank_position_bias_regularization: 0]
[eval_at: ]
[multi_error_top_k: 1]
[auc_mu_weights: ]
[num_machines: 1]
[local_listen_port: 12400]
[time_out: 120]
[machine_list_filename: ]
[machines: ]
[gpu_platform_id: -1]
[gpu_device_id: -1]
[gpu_use_dp: 0]
[num_gpu: 1]

end of parameters

pandas_categorical:[]
