tree
version=v4
num_class=1
num_tree_per_iteration=1
label_index=0
max_feature_idx=7
objective=regression
feature_names=consolidated_factor_name consolidated_event_type consolidated_event_tags event_tag_category factor_movement factor_magnitude article_source_credibility market_perception_intensity
feature_infos=[0:4] [0:4] [0:6] [0:1] [0:2] [0.0010049944474049999:0.049995458100519197] [0.1000657594407242:0.99972797269279079] [0.1000708010823147:0.99999329610042975]
tree_sizes=2835 2836 2809 2831 2824 2820

Tree=0
num_leaves=31
num_cat=0
split_feature=6 6 6 6 5 6 7 5 7 7 6 1 7 6 5 7 6 6 6 6 6 5 7 7 7 7 5 6 5 4
split_gain=183.573 103.22 92.5297 68.9535 68.2989 65.5604 95.0058 61.9922 126.972 61.6397 93.7575 73.5014 63.351 57.3431 53.7376 48.5017 52.0612 57.0612 58.1171 46.5386 48.9963 40.8141 51.0153 62.4821 52.297 39.4596 37.8452 52.3022 50.4852 52.0453
threshold=0.63924827092649184 0.42850653602098659 0.51021648721219259 0.40455077270983469 0.0051388809094257007 0.68451739425144564 0.57639597725315039 0.048965626748440162 0.53485784775707346 0.2757690222445866 0.12714354290931382 2.5000000000000004 0.89750210701936928 0.17084866048765762 0.048260093952483811 0.21545625460988158 0.3685469153129492 0.31837619915908055 0.23183876954809049 0.59126368094594683 0.58313619801003125 0.044697784812045012 0.21918626050504128 0.35008248736792325 0.49487074450463903 0.15468958748536143 0.029644577371493206 0.69195979976193411 0.047252044283711804 1.5000000000000002
decision_type=2 2 2 2 2 2 2 2 2 2 2 2 2 2 2 2 2 2 2 2 2 2 2 2 2 2 2 2 2 2
left_child=1 3 21 4 -1 6 -2 9 -9 10 -6 12 -11 -14 19 16 17 18 25 20 -4 22 -3 -24 -25 -12 27 -7 -28 -30
right_child=5 2 14 -5 7 26 -8 8 -10 11 15 -13 13 -15 -16 -17 -18 -19 -20 -21 -22 -23 23 24 -26 -27 28 -29 29 -31
leaf_value=-0.064913461542437323 0.0031311592984473325 -0.14371846027633592 -0.0085596923191146104 0.048110823315224441 -0.16911758695163978 -0.10837829706145523 0.099479484029876983 0.026417922243538974 -0.2680403232045393 -0.0036272467676606154 0.10185523788356238 0.028211229946427035 0.027958457436867767 -0.11675374337439108 -0.12980444361583718 -0.071539875914176168 -0.11575756000830677 0.11189276071271646 -0.059856946888893231 -0.043251328426528721 0.082934333767231846 0.011368564798249284 0.013889089094315722 -0.14156976935552526 -0.05953462699600974 -0.018606890099776466 -0.016936100445962242 0.018838832725652163 -0.0015846563953689635 0.11989016343312671
leaf_weight=223 213 92 588 206 48 33 197 32 27 1012 57 738 38 98 43 135 34 50 105 386 65 60 88 101 337 52 914 1561 90 58
leaf_count=223 213 92 588 206 48 33 197 32 27 1012 57 738 38 98 43 135 34 50 105 386 65 60 88 101 337 52 914 1561 90 58
internal_value=-0.0067598 -0.0193605 -0.0384082 -0.00761834 -0.0119521 0.012207 0.0494254 -0.00708388 -0.108334 -0.0045601 -0.0365144 0.00358943 -0.0122389 -0.0763195 -0.0202578 -0.0218148 0.000711718 0.0157115 -0.0067607 -0.0157241 0.000547676 -0.0673738 -0.0750187 -0.0630028 -0.0784514 0.0443871 0.00646173 0.0162051 -0.00816251 0.0460203
internal_weight=7681 4615 1760 2855 2649 3066 410 2426 59 2367 481 1886 1148 136 1082 433 298 264 214 1039 653 678 618 526 438 109 2656 1594 1062 148
internal_count=7681 4615 1760 2855 2649 3066 410 2426 59 2367 481 1886 1148 136 1082 433 298 264 214 1039 653 678 618 526 438 109 2656 1594 1062 148
is_linear=0
shrinkage=1


Tree=1
num_leaves=31
num_cat=0
split_feature=6 6 6 6 5 6 7 5 5 5 7 7 7 6 7 5 2 3 7 7 6 5 7 7 6 6 3 5 5 7
split_gain=148.694 83.608 76.3734 56.3758 53.6624 53.1039 76.9662 51.2382 43.4073 42.4761 41.6641 85.1154 56.0715 41.1691 69.0607 55.7077 49.5487 40.9452 39.3197 52.0834 50.7789 64.0495 42.5935 51.2293 47.6521 65.0845 66.5181 41.752 62.7472 37.7366
threshold=0.63924827092649184 0.42850653602098659 0.49912978662974955 0.41563027085738841 0.0016774876405693002 0.68451739425144564 0.67191650560857796 0.049475577155872162 0.049111443985882859 0.039647912978820012 0.21918626050504128 0.35008248736792325 0.43884097652055265 0.12333003499498112 0.36822636196448361 0.0096963110292473016 4.5000000000000009 1.0000000180025095e-35 0.83637073524444538 0.85767247139076719 0.13416206318486548 0.022647995013658204 0.73856778671661416 0.65291583855792723 0.16685444808039793 0.18057844337097617 1.0000000180025095e-35 0.016574863426387754 0.025526360069593704 0.33259107269052379
decision_type=2 2 2 2 2 2 2 2 2 2 2 2 2 2 2 2 2 2 2 2 2 2 2 2 2 2 2 2 2 2
left_child=1 3 10 4 -1 6 -2 13 -4 -8 -3 17 -13 14 -6 -16 -17 -12 20 -20 21 -15 23 29 -24 -26 -27 -21 -29 -22
right_child=5 2 8 -5 7 -7 9 -9 -10 -11 11 12 -14 18 15 16 -18 -19 19 27 22 -23 24 -25 25 26 -28 28 -30 -31
leaf_value=-0.13046275514996414 0.017498399508563248 -0.12325282612194617 -0.011059020854726043 0.066037364434142987 -0.12523897750222165 0.011913516964990645 0.080367589922000965 -0.13212650775909426 -0.14693586255113286 0.21167495034394729 0.13527820615037797 -0.16415552463309438 -0.0521392959177783 -0.022776356306858363 -0.13127153353006751 0.072967865879272495 -0.07348912465527202 -0.0084322340380061766 -0.12431689753355657 -0.061862874776124954 -0.012244548235748214 0.16671380456537011 -0.065754041241834302 -0.046729534142761014 0.22009970329024575 0.12140563750036167 0.0058553387960251762 0.088543908336289126 -0.021549798013495932 0.020082226537332444
leaf_weight=33 259 84 1154 121 69 2656 120 30 24 31 31 51 361 30 27 77 33 55 47 117 641 44 37 211 22 71 167 73 178 827
leaf_count=33 259 84 1154 121 69 2656 120 30 24 31 31 51 361 30 27 77 33 55 47 117 641 44 37 211 22 71 167 73 178 827
internal_value=1.41417e-05 -0.0113265 -0.0284694 -0.000758537 -0.00371476 0.0170843 0.0505808 -0.00216619 -0.0138273 0.107325 -0.0581058 -0.0471172 -0.0660054 -0.000706506 -0.0436526 -0.00256166 0.0290308 0.0433704 0.0028825 -0.025188 0.00856506 0.0898935 0.00551936 -0.00065556 0.0404274 0.0555378 0.0403262 -0.0125275 0.0104695 0.00596679
internal_weight=7681 4615 1760 2855 2734 3066 410 2701 1178 151 582 498 412 2671 206 137 110 86 2465 415 2050 74 1976 1679 297 260 238 368 251 1468
internal_count=7681 4615 1760 2855 2734 3066 410 2701 1178 151 582 498 412 2671 206 137 110 86 2465 415 2050 74 1976 1679 297 260 238 368 251 1468
is_linear=0
shrinkage=0.1


Tree=2
num_leaves=31
num_cat=0
split_feature=6 5 6 6 5 5 7 7 7 5 6 7 5 7 7 7 6 0 2 6 6 3 6 6 1 7 0 5 3 6
split_gain=120.442 67.9495 64.8506 64.8219 49.8811 49.8365 45.1215 44.9548 43.8559 65.1753 43.8804 43.4024 47.7657 42.8139 42.4118 49.1928 41.5687 60.1628 41.5317 52.0094 40.8849 43.9004 38.418 41.5527 35.6868 48.028 37.994 34.5298 40.0199 31.9338
threshold=0.63924827092649184 0.049475577155872162 0.42850653602098659 0.51021648721219259 0.04590341999158961 0.0051388809094257007 0.968785928363744 0.21918626050504128 0.72692127869375567 0.0020199935346294005 0.68161051366020653 0.97904175360383994 0.020624461803300805 0.5663521715486951 0.35008248736792325 0.49487074450463903 0.41563027085738841 1.0000000180025095e-35 3.5000000000000004 0.87015330296104942 0.48475361826372171 1.0000000180025095e-35 0.59126368094594683 0.58313619801003125 1.5000000000000002 0.17573178576842494 3.5000000000000004 0.011385312271539402 1.0000000180025095e-35 0.92385105915960164
decision_type=2 2 2 2 2 2 2 2 2 2 2 2 2 2 2 2 2 2 2 2 2 2 2 2 2 2 2 2 2 2
left_child=1 2 5 4 6 -1 7 27 18 -10 -11 -12 -13 -3 20 -16 -7 -18 19 -2 21 -9 23 -5 25 -21 29 -4 -29 -27
right_child=8 13 3 22 -6 16 -8 14 9 10 11 12 -14 -15 15 -17 17 -19 -20 24 -22 -23 -24 -25 -26 26 -28 28 -30 -31
leaf_value=-0.04322160533717035 0.011006988621613457 -0.041006401129837694 -0.0049333436922593555 -0.0023020008281305036 0.058474719996859395 0.0017830573231451448 -0.19947512717474075 0.17272395631298423 -0.14104920176877864 0.094931525080262313 0.035728572915057107 0.046071098899019176 -0.12637945800605749 -0.22156807084878288 -0.11222565434511425 -0.032889092280127014 -0.08933191416519029 0.098066264988794449 0.023516752258107371 -0.11531507575086185 -0.085169896606355919 0.0024322057642587802 -0.033394201883638008 0.081844769406777165 -0.054254532045938754 -0.079913985707930166 0.11838481313415937 -0.055277596640267546 -0.20889985415824627 0.037072916068136695
leaf_weight=239 763 29 22 604 41 2471 21 24 21 115 753 29 36 24 103 324 21 93 906 28 25 41 397 65 275 35 35 28 43 70
leaf_count=239 763 29 22 604 41 2471 21 24 21 115 753 29 36 24 103 324 21 93 906 28 25 41 397 65 275 35 35 28 43 70
internal_value=1.2727e-05 -0.0101939 -0.00888597 -0.024084 -0.0484077 0.00046748 -0.0553525 -0.0503909 0.0153759 0.033171 0.0370923 0.0289609 -0.04944 -0.12277 -0.0388771 -0.0520265 0.00450682 0.0635455 0.00733772 -0.00481667 0.0235094 0.0653092 -0.00875047 0.00587369 -0.0320705 0.00424262 0.0281542 -0.114398 -0.148316 -0.00192272
internal_weight=7681 4615 4562 1738 672 2824 631 610 3066 954 933 818 65 53 517 427 2585 114 2112 1206 90 65 1066 669 443 168 140 93 71 105
internal_count=7681 4615 4562 1738 672 2824 631 610 3066 954 933 818 65 53 517 427 2585 114 2112 1206 90 65 1066 669 443 168 140 93 71 105
is_linear=0
shrinkage=0.1


Tree=3
num_leaves=31
num_cat=0
split_feature=6 6 6 1 5 7 5 1 7 7 6 7 6 7 6 4 6 5 5 4 5 6 7 7 7 5 1 5 5 7
split_gain=97.9591 57.533 74.4101 49.0931 56.1022 50.7424 46.0882 39.1914 93.4955 76.7414 61.3639 38.0294 56.2251 39.788 37.8018 39.3418 35.9627 37.432 58.6399 35.0281 54.6315 66.2159 52.7112 50.7877 68.522 49.4025 89.0593 45.8067 45.6212 51.4712
threshold=0.6345797565756871 0.43937190333100823 0.47658317444652559 1.0000000180025095e-35 0.049111443985882859 0.50407174367386143 0.0027324466407578005 2.5000000000000004 0.25794671903381355 0.13089271327284044 0.17084866048765762 0.89750210701936928 0.13781854602046409 0.93656782993272947 0.41921079113493026 1.5000000000000002 0.60932105582375418 0.031572686499813006 0.029442895263916153 1.5000000000000002 0.047252044283711804 0.88261704186035395 0.92077280150005669 0.75097245124344436 0.71243005554246364 0.029786316719699255 1.0000000180025095e-35 0.031155921491979002 0.041892574748236759 0.3086748264952891
decision_type=2 2 2 2 2 2 2 2 2 2 2 2 2 2 2 2 2 2 2 2 2 2 2 2 2 2 2 2 2 2
left_child=1 6 -3 -4 5 16 -1 11 9 10 -9 -8 -13 -14 -10 -16 17 18 -5 25 22 -22 23 24 28 -2 -27 -28 29 -21
right_child=19 2 3 4 -6 -7 7 8 14 -11 -12 12 13 -15 15 -17 -18 -19 -20 20 21 -23 -24 -25 -26 26 27 -29 -30 -31
leaf_value=-0.071368577682102724 0.01866531126395626 -0.068837141445914254 -0.051914275033679208 -0.024605210234846221 -0.17026915483176708 0.018357638636371122 -0.0032050486309266007 -0.095969817042350775 0.023905935407614053 -0.082647803742808612 0.11605046228613965 0.097446708516641112 -0.13713982907434305 -0.03312275165005734 0.035692878698723188 0.19537797592304373 -0.09827393896877766 0.024421338326979004 -0.20315668113529683 0.074475023180575056 0.18291252142061359 -0.031391298345157075 -0.048820541882293025 0.072471516820924162 -0.10398122975410927 0.053846923304910338 -0.1395780881245931 -0.023458584979914786 -0.052695905128219991 0.012484122261596032
leaf_weight=90 1214 305 273 229 20 584 1537 20 868 151 43 22 60 95 36 27 60 149 20 204 46 21 94 214 44 158 36 603 68 390
leaf_count=90 1214 305 273 229 20 584 1537 20 868 151 43 22 60 95 36 27 60 149 20 204 46 21 94 214 44 158 36 603 68 390
internal_value=1.14546e-05 -0.00925843 -0.0242731 -0.0140918 -0.00436903 -0.00118476 -0.000908477 0.00130957 0.0156345 -0.0439675 0.0487424 -0.00825985 -0.0521538 -0.0733874 0.0293346 0.104129 -0.0261035 -0.0152235 -0.0389467 0.0137694 0.0282865 0.115743 0.0225079 0.0297958 0.0168601 0.00596577 -0.0133783 -0.0300005 0.0248918 0.0337739
internal_weight=7681 4589 1640 1335 1062 1042 2949 2859 1145 214 63 1714 177 155 931 63 458 398 249 3092 1081 67 1014 920 706 2011 797 639 662 594
internal_count=7681 4589 1640 1335 1062 1042 2949 2859 1145 214 63 1714 177 155 931 63 458 398 249 3092 1081 67 1014 920 706 2011 797 639 662 594
is_linear=0
shrinkage=0.1


Tree=4
num_leaves=31
num_cat=0
split_feature=4 7 5 7 7 5 2 7 0 7 5 5 5 7 2 3 1 5 5 5 5 2 7 7 7 1 5 3 7 7
split_gain=57.4876 59.5548 53.6765 61.6334 51.8683 47.1711 45.1742 43.6351 48.773 43.4784 42.8104 65.2276 43.765 37.8828 37.6813 44.7208 36.8467 34.5974 40.8053 30.6747 43.8307 48.4392 42.1775 62.743 30.9525 30.1302 76.5245 70.0369 62.5773 63.0946
threshold=1.5000000000000002 0.9172233589224269 0.044350277597614007 0.16336252166967599 0.15468958748536143 0.0016774876405693002 1.0000000180025095e-35 0.74755522671012198 2.5000000000000004 0.16336252166967599 0.0034967171840866004 0.0059740555984977512 0.0082125056443706507 0.47008648498389344 4.5000000000000009 1.0000000180025095e-35 2.5000000000000004 0.038964293521330157 0.034593247465007103 0.047669823572307361 0.049670973341042958 2.5000000000000004 0.34681734979062789 0.76035600824836092 0.54183248170858078 2.5000000000000004 0.046655054791684004 1.0000000180025095e-35 0.69864259988760014 0.59116739628382542
decision_type=2 2 2 2 2 2 2 2 2 2 2 2 2 2 2 2 2 2 2 2 2 2 2 2 2 2 2 2 2 2
left_child=2 5 3 4 -1 -2 -3 10 -9 -4 -7 13 -13 -12 19 -16 -8 18 -10 22 21 -21 -11 24 -24 28 27 -27 29 -14
right_child=1 6 9 -5 -6 7 16 8 17 14 11 12 25 -15 15 -17 -18 -19 -20 20 -22 -23 23 -25 -26 26 -28 -29 -30 -31
leaf_value=-0.026463685674164045 -0.10178855038953549 -0.141287018709323 0.060900692754360136 0.00068854243899447889 -0.1327480641684749 0.094327275504668559 -0.048979430591714557 0.020666158908353473 0.082964168723288281 -0.0012833076000044292 -0.018459529832738346 0.086852862221467042 -0.0063710019011456497 -0.14186938360688234 0.070177997565931752 -0.040939728298478507 0.035658353185934223 0.16065699314077697 -0.0618804335553685 0.054051709569552367 -0.13964011839457921 -0.077153954872240638 -0.10415621672570706 -0.028330729039091812 -0.21542611283063892 0.066391508156383366 0.13933963825756854 -0.0084745218566098773 -0.093286012150887138 0.065404695057988058
leaf_weight=278 33 34 43 4169 55 60 138 331 126 44 61 77 734 42 54 110 82 45 23 68 28 48 50 57 50 185 55 385 69 147
leaf_count=278 33 34 43 4169 55 60 138 331 126 44 61 77 734 42 54 110 82 45 23 68 28 48 50 57 50 185 55 385 69 147
internal_value=1.03095e-05 0.0120099 -0.0062269 -0.00261828 -0.0440182 0.0169359 -0.0340116 0.0186102 0.0440006 -0.0356581 0.0112659 0.0084262 0.01324 -0.068782 -0.0438153 -0.00435218 -0.0174326 0.0838134 0.0606056 -0.0625746 -0.0273458 -0.00024029 -0.0878131 -0.112063 -0.159791 0.00964118 0.0266935 0.0158241 -0.00157743 0.00560519
internal_weight=7681 2627 5054 4502 333 2373 254 2340 525 552 1815 1755 1652 103 509 164 220 194 149 345 144 116 201 157 100 1575 625 570 950 881
internal_count=7681 2627 5054 4502 333 2373 254 2340 525 552 1815 1755 1652 103 509 164 220 194 149 345 144 116 201 157 100 1575 625 570 950 881
is_linear=0
shrinkage=0.1


Tree=5
num_leaves=31
num_cat=0
split_feature=4 5 5 5 5 5 6 6 6 7 5 5 7 7 0 5 2 6 6 6 7 3 5 2 7 5 5 7 0 6
split_gain=61.58 66.3442 58.5432 55.0702 59.274 58.3832 46.5622 55.6712 53.8525 52.4934 64.777 83.9403 52.8663 52.399 48.9016 38.9971 48.243 38.6718 53.0986 49.5688 51.4433 51.559 52.8654 44.3804 37.0726 36.5952 51.8614 34.4188 51.1896 33.1008
threshold=1.5000000000000002 0.044697784812045012 0.0043619030458241009 0.017796883003927202 0.0016774876405693002 0.018210482460667903 0.95630573396363927 0.6345797565756871 0.62263009562823979 0.79446737750684948 0.038018796693225505 0.044145383114643957 0.98642101352490141 0.67607767123330997 3.5000000000000004 0.038964293521330157 5.5000000000000009 0.28983668092564724 0.26166343235482675 0.56342694594718201 0.91333045732187801 1.0000000180025095e-35 0.023172565040804952 3.5000000000000004 0.11586066266007566 0.015951856144808155 0.010165251283814651 0.85767247139076719 3.5000000000000004 0.78479593865932462
decision_type=2 2 2 2 2 2 2 2 2 2 2 2 2 2 2 2 2 2 2 2 2 2 2 2 2 2 2 2 2 2
left_child=1 2 -1 4 -2 -5 7 8 24 10 -9 29 15 14 -8 16 -11 18 -7 20 21 22 -19 -20 -4 26 27 28 -6 -12
right_child=3 -3 6 5 25 17 13 9 -10 12 11 -13 -14 -15 -16 -17 -18 19 23 -21 -22 -23 -24 -25 -26 -27 -28 -29 -30 -31
leaf_value=-0.044346749060787262 -0.096992884401012877 -0.040638874095719479 -0.10040303728996942 -0.15612716344387637 0.047387676603686646 0.015592235776956773 -0.11209485329550889 0.018709087997192404 -0.10283843007470882 0.070151807675138109 -0.025786922876661841 0.14500859532505275 -0.083271115674422344 0.031599882221411149 0.016020769989345134 0.16971924132667482 -0.049943525840838748 -0.11735676299958003 0.18022661343216898 0.011603052306127605 -0.12411206934973598 -0.040293856565129724 0.053373503816643159 0.008218143375900884 -0.0021302913055935135 0.096880339400502308 0.00098257709698038563 -0.0085873550176620485 0.14199709856594112 -0.11851804009519327
leaf_weight=311 34 507 39 23 294 307 109 938 56 235 76 20 26 63 41 32 39 21 40 833 50 321 133 24 2443 93 337 75 71 78
leaf_count=311 34 507 39 23 294 307 109 938 56 235 76 20 26 63 41 32 39 21 40 833 50 321 133 24 2443 93 337 75 71 78
internal_value=0.000179718 -0.00634281 -0.00248393 0.0124905 0.0325365 0.00214714 0.000619609 0.00305624 -0.00586248 0.0187319 0.00831392 -0.0477244 0.053626 -0.0449328 -0.0770766 0.0652578 0.0530579 0.00425258 0.0328655 -0.00356436 -0.02763 -0.017474 0.0300921 0.115723 -0.00367446 0.0375985 0.030503 0.053113 0.0657912 -0.0727546
internal_weight=7669 5013 4506 2656 904 1752 4195 3982 2538 1444 1112 174 332 213 150 306 274 1729 371 1358 525 475 154 64 2482 870 777 440 365 154
internal_count=7669 5013 4506 2656 904 1752 4195 3982 2538 1444 1112 174 332 213 150 306 274 1729 371 1358 525 475 154 64 2482 870 777 440 365 154
is_linear=0
shrinkage=0.1


end of trees

feature_importances:
market_perception_intensity=53
factor_magnitude=49
article_source_credibility=47
consolidated_event_type=7
consolidated_event_tags=7
event_tag_category=7
consolidated_factor_name=5
factor_movement=5

parameters:
[boosting: gbdt]
[objective: regression]
[metric: rmse]
[tree_learner: serial]
[device_type: cpu]
[data_sample_strategy: bagging]
[data: ]
[valid: ]
[num_iterations: 100]
[learning_rate: 0.1]
[num_leaves: 31]
[num_threads: 0]
[seed: 0]
[deterministic: 0]
[force_col_wise: 0]
[force_row_wise: 0]
[histogram_pool_size: -1]
[max_depth: -1]
[min_data_in_leaf: 20]
[min_sum_hessian_in_leaf: 0.001]
[bagging_fraction: 0.8]
[pos_bagging_fraction: 1]
[neg_bagging_fraction: 1]
[bagging_freq: 5]
[bagging_seed: 3]
[bagging_by_query: 0]
[feature_fraction: 0.9]
[feature_fraction_bynode: 1]
[feature_fraction_seed: 2]
[extra_trees: 0]
[extra_seed: 6]
[early_stopping_round: 0]
[early_stopping_min_delta: 0]
[first_metric_only: 0]
[max_delta_step: 0]
[lambda_l1: 0]
[lambda_l2: 0]
[linear_lambda: 0]
[min_gain_to_split: 0]
[drop_rate: 0.1]
[max_drop: 50]
[skip_drop: 0.5]
[xgboost_dart_mode: 0]
[uniform_drop: 0]
[drop_seed: 4]
[top_rate: 0.2]
[other_rate: 0.1]
[min_data_per_group: 100]
[max_cat_threshold: 32]
[cat_l2: 10]
[cat_smooth: 10]
[max_cat_to_onehot: 4]
[top_k: 20]
[monotone_constraints: ]
[monotone_constraints_method: basic]
[monotone_penalty: 0]
[feature_contri: ]
[forcedsplits_filename: ]
[refit_decay_rate: 0.9]
[cegb_tradeoff: 1]
[cegb_penalty_split: 0]
[cegb_penalty_feature_lazy: ]
[cegb_penalty_feature_coupled: ]
[path_smooth: 0]
[interaction_constraints: ]
[verbosity: -1]
[saved_feature_importance_type: 0]
[use_quantized_grad: 0]
[num_grad_quant_bins: 4]
[quant_train_renew_leaf: 0]
[stochastic_rounding: 1]
[linear_tree: 0]
[max_bin: 255]
[max_bin_by_feature: ]
[min_data_in_bin: 3]
[bin_construct_sample_cnt: 200000]
[data_random_seed: 1]
[is_enable_sparse: 1]
[enable_bundle: 1]
[use_missing: 1]
[zero_as_missing: 0]
[feature_pre_filter: 1]
[pre_partition: 0]
[two_round: 0]
[header: 0]
[label_column: ]
[weight_column: ]
[group_column: ]
[ignore_column: ]
[categorical_feature: ]
[forcedbins_filename: ]
[precise_float_parser: 0]
[parser_config_file: ]
[objective_seed: 5]
[num_class: 1]
[is_unbalance: 0]
[scale_pos_weight: 1]
[sigmoid: 1]
[boost_from_average: 1]
[reg_sqrt: 0]
[alpha: 0.9]
[fair_c: 1]
[poisson_max_delta_step: 0.7]
[tweedie_variance_power: 1.5]
[lambdarank_truncation_level: 30]
[lambdarank_norm: 1]
[label_gain: ]
[lambdarank_position_bias_regularization: 0]
[eval_at: ]
[multi_error_top_k: 1]
[auc_mu_weights: ]
[num_machines: 1]
[local_listen_port: 12400]
[time_out: 120]
[machine_list_filename: ]
[machines: ]
[gpu_platform_id: -1]
[gpu_device_id: -1]
[gpu_use_dp: 0]
[num_gpu: 1]

end of parameters

pandas_categorical:[]
